<?xml version="1.0"?>
<opencv_storage>
<cascade>
  <stageType>BOOST</stageType>
  <featureType>LBP</featureType>
  <height>64</height>
  <width>64</width>
  <stageParams>
    <boostType>GAB</boostType>
    <minHitRate>9.9800002574920654e-01</minHitRate>
    <maxFalseAlarm>3.0000001192092896e-01</maxFalseAlarm>
    <weightTrimRate>9.4999999999999996e-01</weightTrimRate>
    <maxDepth>1</maxDepth>
    <maxWeakCount>100</maxWeakCount></stageParams>
  <featureParams>
    <maxCatCount>256</maxCatCount>
    <featSize>1</featSize></featureParams>
  <stageNum>10</stageNum>
  <stages>
    <!-- stage 0 -->
    <_>
      <maxWeakCount>2</maxWeakCount>
      <stageThreshold>-2.4228894710540771e-01</stageThreshold>
      <weakClassifiers>
        <_>
          <internalNodes>
            0 -1 7 -767830017 1360928898 4390937 -553287611 -2088659969
            -1162870655 -720862665 -606103361</internalNodes>
          <leafValues>
            -9.3567252159118652e-01 6.6037738323211670e-01</leafValues></_>
        <_>
          <internalNodes>
            0 -1 6 -1857293609 -183267261 -729284573 -785973109
            -1946042237 1410368707 1090994316 -2102133</internalNodes>
          <leafValues>
            -9.0266633033752441e-01 7.6185733079910278e-01</leafValues></_></weakClassifiers></_>
    <!-- stage 1 -->
    <_>
      <maxWeakCount>2</maxWeakCount>
      <stageThreshold>-2.1455684304237366e-01</stageThreshold>
      <weakClassifiers>
        <_>
          <internalNodes>
            0 -1 11 -774768643 -720252459 -1332719303 -15593413
            1090644205 -1811312496 -1777825110 -74611828</internalNodes>
          <leafValues>
            -9.3659943342208862e-01 8.3333331346511841e-01</leafValues></_>
        <_>
          <internalNodes>
            0 -1 5 -653041223 -1626767344 23085499 -1627385597 41959935
            -628850670 160467433 -310310751</internalNodes>
          <leafValues>
            -9.4936358928680420e-01 7.2204256057739258e-01</leafValues></_></weakClassifiers></_>
    <!-- stage 2 -->
    <_>
      <maxWeakCount>2</maxWeakCount>
      <stageThreshold>-2.4877060949802399e-01</stageThreshold>
      <weakClassifiers>
        <_>
          <internalNodes>
            0 -1 12 -209332225 -775704312 268468373 -620592943
            1352827035 -1593440255 -400497973 -23476002</internalNodes>
          <leafValues>
            -9.4219654798507690e-01 7.9487180709838867e-01</leafValues></_>
        <_>
          <internalNodes>
            0 -1 18 -670180897 -1722724329 -1726889701 276988767
            -771585893 -1702641462 -1462698854 -626288453</internalNodes>
          <leafValues>
            -9.6000641584396362e-01 6.9342589378356934e-01</leafValues></_></weakClassifiers></_>
    <!-- stage 3 -->
    <_>
      <maxWeakCount>2</maxWeakCount>
      <stageThreshold>-4.6747532486915588e-01</stageThreshold>
      <weakClassifiers>
        <_>
          <internalNodes>
            0 -1 2 -611200545 -577154865 1067807 -720780031 -400973409
            -738197352 -2013214137 -5520918</internalNodes>
          <leafValues>
            -9.6969699859619141e-01 4.5454546809196472e-01</leafValues></_>
        <_>
          <internalNodes>
            0 -1 15 -1874625961 1495483221 -1853878123 -1613031182
            -1459316533 -357531512 939690139 -1083273073</internalNodes>
          <leafValues>
            -9.2202079296112061e-01 6.8830156326293945e-01</leafValues></_></weakClassifiers></_>
    <!-- stage 4 -->
    <_>
      <maxWeakCount>2</maxWeakCount>
      <stageThreshold>-2.2575704753398895e-01</stageThreshold>
      <weakClassifiers>
        <_>
          <internalNodes>
            0 -1 3 -628368929 -1459535695 1078526275 -171716593
            -629040548 -888831872 -1978674183 -5540917</internalNodes>
          <leafValues>
            -9.2528736591339111e-01 7.2972971200942993e-01</leafValues></_>
        <_>
          <internalNodes>
            0 -1 13 -138045509 -604749173 -1803189229 -184316856
            -1996428545 -1568344046 -1467890723 -3687475</internalNodes>
          <leafValues>
            -9.5131564140319824e-01 6.9953030347824097e-01</leafValues></_></weakClassifiers></_>
    <!-- stage 5 -->
    <_>
      <maxWeakCount>2</maxWeakCount>
      <stageThreshold>-5.3769028186798096e-01</stageThreshold>
      <weakClassifiers>
        <_>
          <internalNodes>
            0 -1 19 -163055945 -1944870703 1224869273 1535623441
            -1576523589 -1333788661 -1191179013 -137366645</internalNodes>
          <leafValues>
            -9.5783132314682007e-01 4.3396225571632385e-01</leafValues></_>
        <_>
          <internalNodes>
            0 -1 17 -603727361 -653191165 1091687375 -837041902
            -1207838727 -1459552248 -1979660097 -561410677</internalNodes>
          <leafValues>
            -9.7165250778198242e-01 5.2735352516174316e-01</leafValues></_></weakClassifiers></_>
    <!-- stage 6 -->
    <_>
      <maxWeakCount>2</maxWeakCount>
      <stageThreshold>-4.6994540095329285e-01</stageThreshold>
      <weakClassifiers>
        <_>
          <internalNodes>
            0 -1 8 -725470757 -244121325 671093215 -712177593
            -2113593171 -1198833622 -1608676869 -24509053</internalNodes>
          <leafValues>
            -9.4642859697341919e-01 4.6938776969909668e-01</leafValues></_>
        <_>
          <internalNodes>
            0 -1 9 -791489353 -645688939 16830527 -82619072 973390539
            -2004121216 -1740602993 -5879632</internalNodes>
          <leafValues>
            -9.3933314085006714e-01 6.8372559547424316e-01</leafValues></_></weakClassifiers></_>
    <!-- stage 7 -->
    <_>
      <maxWeakCount>2</maxWeakCount>
      <stageThreshold>-1.7353922128677368e-01</stageThreshold>
      <weakClassifiers>
        <_>
          <internalNodes>
            0 -1 14 -1852247105 -82619053 8558729 -242761467 -1064771409
            -352223166 -2013160753 -104338741</internalNodes>
          <leafValues>
            -9.1477274894714355e-01 8.1818181276321411e-01</leafValues></_>
        <_>
          <internalNodes>
            0 -1 16 -49547809 -1861156713 -1874763621 -1727985638
            -2145381937 -1207958820 -1711044125 -1431718949</internalNodes>
          <leafValues>
            -9.3058758974075317e-01 7.4123352766036987e-01</leafValues></_></weakClassifiers></_>
    <!-- stage 8 -->
    <_>
      <maxWeakCount>2</maxWeakCount>
      <stageThreshold>-4.9491089582443237e-01</stageThreshold>
      <weakClassifiers>
        <_>
          <internalNodes>
            0 -1 10 -485389829 -653983727 151327839 -37679101 -938475445
            -1164410752 -1191138643 -74772456</internalNodes>
          <leafValues>
            -9.5783132314682007e-01 4.3396225571632385e-01</leafValues></_>
        <_>
          <internalNodes>
            0 -1 1 -613287465 1363218443 1359286281 -1143003135
            -654130797 -1692268541 38083035 -77081645</internalNodes>
          <leafValues>
            -9.2887312173843384e-01 6.7575824260711670e-01</leafValues></_></weakClassifiers></_>
    <!-- stage 9 -->
    <_>
      <maxWeakCount>2</maxWeakCount>
      <stageThreshold>-6.4705276489257812e-01</stageThreshold>
      <weakClassifiers>
        <_>
          <internalNodes>
            0 -1 4 -805188737 1897087791 -587132449 -788461095
            -266237457 -1668742903 -1979126911 -342161009</internalNodes>
          <leafValues>
            -9.7507786750793457e-01 2.8125000000000000e-01</leafValues></_>
        <_>
          <internalNodes>
            0 -1 0 -644352131 -781086493 9437675 -1820200383 -394155843
            -259489695 -494859799 -79434857</internalNodes>
          <leafValues>
            -9.2830276489257812e-01 6.4153248071670532e-01</leafValues></_></weakClassifiers></_></stages>
  <features>
    <_>
      <rect>
        0 13 8 7</rect></_>
    <_>
      <rect>
        0 19 3 3</rect></_>
    <_>
      <rect>
        1 2 8 3</rect></_>
    <_>
      <rect>
        1 3 14 13</rect></_>
    <_>
      <rect>
        1 8 7 3</rect></_>
    <_>
      <rect>
        1 21 10 3</rect></_>
    <_>
      <rect>
        2 0 12 12</rect></_>
    <_>
      <rect>
        2 3 7 4</rect></_>
    <_>
      <rect>
        3 17 14 5</rect></_>
    <_>
      <rect>
        7 46 12 3</rect></_>
    <_>
      <rect>
        7 61 9 1</rect></_>
    <_>
      <rect>
        8 3 17 13</rect></_>
    <_>
      <rect>
        9 21 16 13</rect></_>
    <_>
      <rect>
        11 4 17 13</rect></_>
    <_>
      <rect>
        24 16 12 7</rect></_>
    <_>
      <rect>
        29 15 7 2</rect></_>
    <_>
      <rect>
        37 0 6 2</rect></_>
    <_>
      <rect>
        46 0 6 2</rect></_>
    <_>
      <rect>
        49 9 5 3</rect></_>
    <_>
      <rect>
        52 54 4 2</rect></_></features></cascade>
</opencv_storage>
